net
{
     node_size = (0 0);
     name = "New BN";
     tree = "(C4,C6,C8,C9,C11)";
     UnBBayes_Color_Probabilistic_Description = "-256";
     UnBBayes_Color_Probabilistic_Explanation = "-16711936";
}

node app_not_responding
{
     label = "C6";
     position = (585 176);
     states = ("yes" "no");
}

node storage_overstuffed
{
     label = "C1";
     position = (307 157);
     states = ("yes" "no");
}

node corrupt_files
{
     label = "C2";
     position = (570 1);
     states = ("yes" "no");
}

node os_outdated
{
     label = "C3";
     position = (805 164);
     states = ("yes" "no");
}

node missing_files
{
     label = "C4";
     position = (593 294);
     states = ("yes" "no");
}

potential (app_not_responding | missing_files os_outdated corrupt_files storage_overstuffed)
{
 data = ((((( 0.4925 0.5075 )
( 0.4925 0.5075 ))
(( 0.4925 0.5075 )
( 0.4925 0.5075 )))
((( 0.4925 0.5075 )
( 0.4925 0.5075 ))
(( 0.4925 0.5075 )
( 0.4925 0.5075 ))))
(((( 0.4925 0.5075 )
( 0.4925 0.5075 ))
(( 0.4925 0.5075 )
( 0.4925 0.5075 )))
((( 0.4925 0.5075 )
( 0.4925 0.5075 ))
(( 0.4925 0.5075 )
( 0.4925 0.5075 )))));
}

potential (storage_overstuffed)
{
 data = ( 0.25 0.75 );
}

potential (corrupt_files)
{
 data = ( 0.15 0.85 );
}

potential (os_outdated)
{
 data = ( 0.1 0.9 );
}

potential (missing_files)
{
 data = ( 0.05 0.95 );
}

