net
{
     node_size = (0 0);
     name = "New BN";
     tree = "(C2,C3,C4,C6)";
     UnBBayes_Color_Probabilistic_Description = "-256";
     UnBBayes_Color_Probabilistic_Explanation = "-16711936";
}

node blank_screen
{
     label = "C2";
     position = (511 146);
     states = ("yes" "no");
}

node cables_connection
{
     label = "C1";
     position = (292 203);
     states = ("yes" "no");
}

node software_glitch
{
     label = "C2";
     position = (500 15);
     states = ("yes" "no");
}

node driver_malfunction
{
     label = "C3";
     position = (695 172);
     states = ("yes" "no");
}

potential (blank_screen | driver_malfunction software_glitch cables_connection)
{
 data = (((( 0.56875 0.43125 )
( 0.56875 0.43125 ))
(( 0.56875 0.43125 )
( 0.56875 0.43125 )))
((( 0.56875 0.43125 )
( 0.56875 0.43125 ))
(( 0.56875 0.43125 )
( 0.56875 0.43125 ))));
}

potential (cables_connection)
{
 data = ( 0.3 0.7 );
}

potential (software_glitch)
{
 data = ( 0.3 0.7 );
}

potential (driver_malfunction)
{
 data = ( 0.2 0.8 );
}

