net
{
     node_size = (0 0);
     name = "New BN";
     tree = "(C6,C7,C8,C9,C13)";
     UnBBayes_Color_Probabilistic_Description = "-256";
     UnBBayes_Color_Probabilistic_Explanation = "-16711936";
}

node computer_wont_start
{
     label = "C6";
     position = (497 287);
     states = ("yes" "no");
}

node cables_connection
{
     label = "C1";
     position = (198 277);
     states = ("yes" "no");
}

node insufficient_power_source
{
     label = "C4";
     position = (490 108);
     states = ("yes" "no");
}

node ram_disconnected
{
     label = "C5";
     position = (745 284);
     states = ("yes" "no");
}

node driver_malfunction
{
     label = "C6";
     position = (501 435);
     states = ("yes" "no");
}

potential (computer_wont_start | driver_malfunction ram_disconnected insufficient_power_source cables_connection)
{
 data = ((((( 0.458125 0.541875 )
( 0.458125 0.541875 ))
(( 0.458125 0.541875 )
( 0.458125 0.541875 )))
((( 0.458125 0.541875 )
( 0.458125 0.541875 ))
(( 0.458125 0.541875 )
( 0.458125 0.541875 ))))
(((( 0.458125 0.541875 )
( 0.458125 0.541875 ))
(( 0.458125 0.541875 )
( 0.458125 0.541875 )))
((( 0.458125 0.541875 )
( 0.458125 0.541875 ))
(( 0.458125 0.541875 )
( 0.458125 0.541875 )))));
}

potential (cables_connection)
{
 data = ( 0.3 0.7 );
}

potential (insufficient_power_source)
{
 data = ( 0.02 0.98 );
}

potential (ram_disconnected)
{
 data = ( 0.05 0.95 );
}

potential (driver_malfunction)
{
 data = ( 0.2 0.8 );
}

