net
{
     node_size = (0 0);
     name = "New BN";
     tree = "(C2,C3,C5,C6,C7)";
     UnBBayes_Color_Probabilistic_Description = "-256";
     UnBBayes_Color_Probabilistic_Explanation = "-16711936";
}

node frozen_screen
{
     label = "C2";
     position = (524 151);
     states = ("yes" "no");
}

node gpu_overused
{
     label = "C1";
     position = (239 147);
     states = ("yes" "no");
}

node storage_overstuffed
{
     label = "C3";
     position = (510 0);
     states = ("yes" "no");
}

node software_glitch
{
     label = "C4";
     position = (729 154);
     states = ("yes" "no");
}

node driver_malfunction
{
     label = "C5";
     position = (525 278);
     states = ("yes" "no");
}

potential (frozen_screen | driver_malfunction software_glitch storage_overstuffed gpu_overused)
{
 data = ((((( 0.56062496 0.43937498 )
( 0.56062496 0.43937498 ))
(( 0.56062496 0.43937498 )
( 0.56062496 0.43937498 )))
((( 0.56062496 0.43937498 )
( 0.56062496 0.43937498 ))
(( 0.56062496 0.43937498 )
( 0.56062496 0.43937498 ))))
(((( 0.56062496 0.43937498 )
( 0.56062496 0.43937498 ))
(( 0.56062496 0.43937498 )
( 0.56062496 0.43937498 )))
((( 0.56062496 0.43937498 )
( 0.56062496 0.43937498 ))
(( 0.56062496 0.43937498 )
( 0.56062496 0.43937498 )))));
}

potential (gpu_overused)
{
 data = ( 0.1 0.9 );
}

potential (storage_overstuffed)
{
 data = ( 0.25 0.75 );
}

potential (software_glitch)
{
 data = ( 0.3 0.7 );
}

potential (driver_malfunction)
{
 data = ( 0.2 0.8 );
}

