net
{
     node_size = (0 0);
     name = "New BN";
     tree = "(C2,C3,C4,C5)";
     UnBBayes_Color_Probabilistic_Description = "-256";
     UnBBayes_Color_Probabilistic_Explanation = "-16711936";
}

node not_booting
{
     label = "C2";
     position = (451 124);
     states = ("yes" "no");
}

node insufficient_power_source
{
     label = "C1";
     position = (192 121);
     states = ("yes" "no");
}

node cables_connection
{
     label = "C2";
     position = (451 0);
     states = ("yes" "no");
}

node gpu_disconnected
{
     label = "C3";
     position = (727 159);
     states = ("yes" "no");
}

potential (not_booting | gpu_disconnected cables_connection insufficient_power_source)
{
 data = (((( 0.67625 0.32375002 )
( 0.67625 0.32375002 ))
(( 0.67625 0.32375002 )
( 0.67625 0.32375002 )))
((( 0.67625 0.32375002 )
( 0.67625 0.32375002 ))
(( 0.67625 0.32375002 )
( 0.67625 0.32375002 ))));
}

potential (insufficient_power_source)
{
 data = ( 0.02 0.98 );
}

potential (cables_connection)
{
 data = ( 0.3 0.7 );
}

potential (gpu_disconnected)
{
 data = ( 0.05 0.95 );
}

