net
{
     node_size = (0 0);
     name = "New BN";
     tree = "(C4,C5,C6,C9,C10)";
     UnBBayes_Color_Probabilistic_Description = "-256";
     UnBBayes_Color_Probabilistic_Explanation = "-16711936";
}

node slow_internet
{
     label = "C4";
     position = (564 142);
     states = ("yes" "no");
}

node virus
{
     label = "C1";
     position = (265 139);
     states = ("yes" "no");
}

node cables_connection
{
     label = "C2";
     position = (557 0);
     states = ("yes" "no");
}

node router_glitch
{
     label = "C3";
     position = (560 290);
     states = ("yes" "no");
}

node provider_glitch
{
     label = "C4";
     position = (879 148);
     states = ("yes" "no");
}

potential (slow_internet | provider_glitch router_glitch cables_connection virus)
{
 data = ((((( 0.47000003 0.53000003 )
( 0.47000003 0.53000003 ))
(( 0.47000003 0.53000003 )
( 0.47000003 0.53000003 )))
((( 0.47000003 0.53000003 )
( 0.47000003 0.53000003 ))
(( 0.47000003 0.53000003 )
( 0.47000003 0.53000003 ))))
(((( 0.47000003 0.53000003 )
( 0.47000003 0.53000003 ))
(( 0.47000003 0.53000003 )
( 0.47000003 0.53000003 )))
((( 0.47000003 0.53000003 )
( 0.47000003 0.53000003 ))
(( 0.47000003 0.53000003 )
( 0.47000003 0.53000003 )))));
}

potential (virus)
{
 data = ( 0.2 0.8 );
}

potential (cables_connection)
{
 data = ( 0.3 0.7 );
}

potential (router_glitch)
{
 data = ( 0.45 0.55 );
}

potential (provider_glitch)
{
 data = ( 0.05 0.95 );
}

